[array([[ 0.00981668,  0.26730058,  0.297953  ,  0.27323723,  0.06634638,
         0.02620837,  0.32971537, -0.01086742,  0.01023007,  0.09025586,
         0.38604662,  0.19778664, -0.07581472,  0.47118405,  0.26043117,
        -0.05347584,  0.2830986 ,  0.32033342,  0.51418245, -0.13438971,
        -0.04190342,  0.13925612,  0.46160066,  0.29347646,  0.33537635,
         0.428532  , -0.10571586,  0.46952373,  0.2711728 , -0.08837551,
         0.39675242,  0.05309449, -0.10836957,  0.27108905,  0.40335307,
         0.34141293, -0.13810852,  0.1427918 ,  0.01388251,  0.45490673,
         0.00682837,  0.25875878,  0.38129207,  0.13634056,  0.3288568 ,
         0.06564285, -0.05148733,  0.19245706,  0.39903924, -0.06313814],
       [-0.01621947, -0.1078773 ,  0.03244895, -0.01372665, -0.13569799,
         0.13198484,  0.46139655,  0.48973808,  0.46696153,  0.02344245,
         0.39220873,  0.10283685,  0.02966779,  0.39061698, -0.09762371,
         0.38056228, -0.02805471,  0.08906294,  0.16295882,  0.28773358,
        -0.14131564,  0.3142221 , -0.17784144,  0.11744503,  0.34909764,
         0.4151282 ,  0.4152467 , -0.04708027,  0.33582306,  0.35210046,
        -0.13399184,  0.21795852,  0.03352055, -0.03565576, -0.07449165,
         0.18343982,  0.23071499,  0.02853324,  0.37813798, -0.01671231,
        -0.14352697,  0.02596235, -0.0151563 , -0.04908395, -0.15632476,
         0.44543117,  0.3084517 , -0.16982533,  0.26476642,  0.31564382]],
      dtype=float32), array([0.13568221, 0.03207343, 0.03572784, 0.18467262, 0.05920083,
       0.11737211, 0.16816787, 0.18077508, 0.16695493, 0.16212505,
       0.17285645, 0.18122919, 0.14427587, 0.1941739 , 0.13446756,
       0.16109233, 0.08762805, 0.18669239, 0.18096264, 0.10385004,
       0.05988434, 0.15148886, 0.13931085, 0.09798711, 0.15950385,
       0.17117032, 0.18084744, 0.14404722, 0.17573507, 0.15729505,
       0.15206246, 0.14549215, 0.15683344, 0.0812253 , 0.16249996,
       0.08087469, 0.1793109 , 0.18131207, 0.0712713 , 0.1792985 ,
       0.17919528, 0.17141017, 0.16512416, 0.14621751, 0.16466206,
       0.17528094, 0.07004619, 0.16862139, 0.0900453 , 0.17553572],
      dtype=float32), array([[ 0.11062673,  0.15758751,  0.21007086, ...,  0.00062754,
         0.01493215, -0.06630239],
       [ 0.22858618,  0.12450253, -0.00423109, ...,  0.02742267,
        -0.00808891,  0.03138129],
       [ 0.08514394,  0.18481396, -0.05620918, ...,  0.14705743,
         0.13852295,  0.24217801],
       ...,
       [ 0.318792  ,  0.26910833,  0.300842  , ...,  0.03732398,
         0.30819523,  0.26304984],
       [ 0.05911339,  0.38887292,  0.3613568 , ...,  0.021106  ,
         0.289061  ,  0.00105458],
       [-0.00193284,  0.40869445,  0.08946928, ...,  0.3609085 ,
        -0.03955358, -0.02935146]], dtype=float32), array([ 0.07787949,  0.16626598,  0.15275627,  0.14693008,  0.17629099,
        0.18533103,  0.18708198,  0.1911382 ,  0.17795613,  0.11852513,
        0.14857906,  0.14368032,  0.15211193,  0.15036355,  0.06221612,
        0.12777917,  0.18344282,  0.18172507,  0.11276279,  0.13831885,
        0.15883233,  0.17466745,  0.1354134 ,  0.11914346,  0.131364  ,
        0.13132791,  0.1833285 ,  0.17506492,  0.12973952,  0.15589517,
        0.10322227,  0.16093716,  0.163681  ,  0.12755086,  0.15790214,
       -0.00327493,  0.11668846,  0.10099875,  0.09772541,  0.17147179,
        0.17643325,  0.12246048,  0.13944325,  0.16503356,  0.15835723,
        0.15311307,  0.13433753,  0.16470082,  0.14448178,  0.09341487],
      dtype=float32), array([[-0.10567291,  0.10301876,  0.2789098 , ...,  0.30250716,
        -0.01944076,  0.16708067],
       [ 0.269066  ,  0.21729128, -0.00040821, ...,  0.3888891 ,
        -0.02787576,  0.03514778],
       [ 0.037077  , -0.07111105, -0.06500773, ...,  0.13923605,
        -0.05965639,  0.08396269],
       ...,
       [ 0.16124745,  0.20396566,  0.00157287, ...,  0.37845674,
         0.316716  ,  0.29836324],
       [ 0.24401918,  0.15872084,  0.33886987, ...,  0.17274533,
         0.04106617,  0.30402923],
       [ 0.17614341,  0.03375176, -0.11707041, ...,  0.17197444,
         0.06487148,  0.02928395]], dtype=float32), array([ 0.06264754,  0.1415984 ,  0.10850549,  0.1419577 ,  0.18616474,
        0.18072633,  0.13621274,  0.08775041,  0.14931335,  0.12596993,
        0.13409805,  0.17903103,  0.18399948,  0.10155951,  0.17542557,
        0.16921523,  0.13248311,  0.04868408,  0.1456624 ,  0.19856438,
        0.11708847,  0.16054215,  0.17889494,  0.08948556,  0.11207547,
       -0.04087   ,  0.08708948,  0.18941079,  0.18345498,  0.13848841,
        0.11266284,  0.0507886 ,  0.14930877,  0.03588872,  0.113092  ,
        0.20019615,  0.18123002,  0.19623445,  0.14126833,  0.14673033,
        0.06637443,  0.12635326,  0.17105295,  0.17190695,  0.13894886,
        0.17659938,  0.18259934,  0.18136388,  0.1426736 ,  0.15165092],
      dtype=float32), array([[ 0.07577141,  0.11426806,  0.29459703, ...,  0.09231859,
        -0.05878336,  0.13566978],
       [ 0.39713907,  0.03457228,  0.07064715, ...,  0.3285149 ,
         0.3567502 , -0.27425304],
       [ 0.00532826,  0.23950468,  0.23071826, ...,  0.06150601,
         0.04999245,  0.06058369],
       ...,
       [ 0.03754942,  0.03846539, -0.12592614, ...,  0.2998535 ,
         0.21045095,  0.11702428],
       [ 0.18026488,  0.1838825 , -0.03182488, ...,  0.25598693,
         0.3632331 , -0.29453596],
       [ 0.09070009,  0.31063783, -0.14324893, ...,  0.23679149,
         0.01380499,  0.13577318]], dtype=float32), array([ 0.19883186,  0.15325226,  0.11206512,  0.08419006,  0.10941616,
       -0.04085799,  0.14917551, -0.0508805 ,  0.15388167,  0.00915759,
        0.14615372,  0.16696067,  0.15486476, -0.11794581, -0.10726596,
       -0.00758538,  0.14023785,  0.17298345,  0.03954372,  0.17955521,
        0.10616302, -0.14466521,  0.1251056 , -0.14190583,  0.16134888,
        0.06236508, -0.12737222,  0.10881338,  0.08550549, -0.04976941,
        0.12565313,  0.17253864,  0.08569971,  0.11117296,  0.15737434,
       -0.18907626,  0.16635804,  0.09451281,  0.14208472, -0.0988216 ,
        0.04807927,  0.2021791 , -0.1108422 ,  0.1392901 ,  0.12063509,
       -0.11568414, -0.04911708,  0.09933022,  0.1765741 , -0.10585918],
      dtype=float32), array([[ 1.06156595e-01, -5.86131141e-02,  8.85733366e-02,
        -1.22552209e-01,  1.77311584e-01,  1.35141611e-01,
        -2.34085634e-01,  9.49593484e-02],
       [ 2.26464912e-01,  2.42082909e-01, -2.40480721e-01,
        -1.01501890e-01,  2.87541240e-01, -6.60873279e-02,
        -4.00657624e-01, -2.60020047e-01],
       [-2.39856452e-01,  2.91656144e-02, -3.11960608e-01,
         4.40255031e-02,  1.65021777e-01,  5.70051745e-02,
        -1.36677638e-01, -1.48653045e-01],
       [ 2.65320629e-01,  1.06030077e-01, -4.06124955e-03,
        -1.18967846e-01, -1.76785544e-01,  1.91130236e-01,
        -1.51291877e-01,  3.18428338e-01],
       [ 2.63411492e-01,  5.32848993e-03, -2.73817122e-01,
        -4.38076891e-02,  2.49415651e-01, -3.34747194e-04,
        -1.46074295e-01,  2.41636872e-01],
       [ 2.66135251e-03,  2.81721264e-01, -7.86025152e-02,
         1.98468298e-01,  2.31102988e-01,  2.19912544e-01,
         7.75152966e-02, -2.49333903e-01],
       [-1.63122024e-02,  2.97139168e-01,  1.49628341e-01,
         2.53379762e-01,  1.14045426e-01, -1.17367223e-01,
        -3.10539186e-01,  2.51116753e-02],
       [-5.06120287e-02,  2.32055098e-01,  4.28963751e-02,
        -2.29823992e-01, -1.16390862e-01, -2.23374069e-01,
        -8.67386162e-02,  2.46155679e-01],
       [ 3.54084596e-02, -2.52295136e-01, -1.61180213e-01,
        -2.17856929e-01, -3.28006297e-02,  2.16404751e-01,
        -3.23646098e-01,  3.12978268e-01],
       [ 8.93287659e-02, -1.51605755e-01, -1.02214620e-01,
        -7.90666193e-02, -2.04969436e-01, -6.07879572e-02,
        -1.41419753e-01,  2.26460099e-02],
       [ 1.14613026e-01,  7.69581571e-02,  3.07566255e-01,
         1.35646567e-01,  3.15992758e-02,  2.06423506e-01,
        -2.78401792e-01,  2.67333686e-01],
       [ 9.10200626e-02,  2.67973989e-01,  2.43421420e-01,
         1.39210626e-01,  3.25913906e-01,  1.71291068e-01,
        -3.08188528e-01, -3.38118076e-02],
       [ 1.89740360e-01,  9.20997635e-02, -2.83486009e-01,
         1.75202295e-01,  7.60727674e-02,  2.21494332e-01,
        -1.80604562e-01, -3.93761098e-02],
       [-1.43566549e-01, -4.53435183e-02, -2.32681483e-01,
        -1.22287758e-02, -1.89535141e-01,  3.01203907e-01,
         1.00349896e-01, -2.45173827e-01],
       [ 1.14701375e-01, -1.94867104e-01,  2.03950047e-01,
        -2.82644778e-01,  1.47806272e-01, -2.43587628e-01,
         1.37793086e-02, -2.12792546e-01],
       [-2.26401255e-01,  8.45449641e-02,  2.85432070e-01,
         8.42309296e-02,  9.99116302e-02,  2.45680809e-01,
         2.53396714e-03,  2.90177763e-02],
       [-2.42571309e-01,  3.62008125e-01,  3.26414317e-01,
         8.17542821e-02, -1.30581737e-01, -5.51750176e-02,
        -4.83296871e-01, -2.45602876e-01],
       [ 1.54377297e-01,  2.97960520e-01, -4.34407890e-02,
         2.45395467e-01,  8.31611361e-03, -3.00613418e-02,
        -4.53014165e-01, -1.21833980e-02],
       [-1.92830905e-01, -1.89953241e-02,  1.31644428e-01,
         2.66165310e-03,  6.35443628e-02,  1.55490279e-01,
        -6.64864108e-02, -2.43563011e-01],
       [ 1.60487399e-01,  9.10533816e-02, -9.36311632e-02,
        -1.20254770e-01,  2.57572159e-02,  1.94413871e-01,
        -3.61165017e-01,  1.16589308e-01],
       [-7.93214440e-02, -1.91905528e-01,  1.73844963e-01,
        -1.49964858e-02,  3.71187329e-01,  1.72154546e-01,
        -6.56460151e-02, -9.38696861e-02],
       [ 1.37489676e-01, -2.96943992e-01,  1.94281638e-01,
         2.99900532e-01,  7.62468129e-02, -9.33996513e-02,
         8.11274648e-02,  5.94774485e-02],
       [ 9.61276069e-02,  4.36519273e-02, -7.37757757e-02,
        -1.20224349e-01,  3.77309173e-01, -2.18141720e-01,
        -3.24988127e-01, -1.30684033e-01],
       [-2.81758979e-02,  1.15599655e-01,  1.07391559e-01,
         1.30805746e-01,  1.78517327e-01, -1.39966860e-01,
         6.32873699e-02,  3.06125522e-01],
       [-7.91145861e-02,  1.33628473e-01,  1.50273353e-01,
        -1.23992659e-01, -5.53228706e-02,  3.66021007e-01,
        -4.74367917e-01,  1.71371400e-02],
       [-2.33397614e-02, -2.41021469e-01,  1.43946186e-01,
        -2.15820923e-01, -8.26071352e-02, -2.73804367e-02,
        -1.67107359e-01,  8.39510560e-02],
       [ 2.54799604e-01, -2.14323297e-01, -4.51211892e-02,
        -1.45757228e-01,  6.94665611e-02,  1.30467996e-01,
         3.84049192e-02,  2.13425636e-01],
       [-1.56808689e-01,  3.26992065e-01, -8.65205154e-02,
        -2.95808762e-01, -1.69756457e-01,  3.60809445e-01,
        -1.52211204e-01, -8.41968358e-02],
       [ 1.41089082e-01, -7.41534382e-02, -2.68424869e-01,
         1.78642586e-01,  2.66911477e-01, -6.04640283e-02,
        -1.41613111e-01,  4.34414744e-02],
       [ 2.53291149e-02,  3.43333393e-01,  1.84376538e-01,
        -2.05516204e-01,  3.49938720e-01, -2.30152816e-01,
         4.10323255e-02, -4.72745895e-02],
       [ 2.26513714e-01, -2.97282804e-02,  7.73594975e-02,
        -9.83640179e-02, -2.26143256e-01,  2.32219711e-01,
        -3.04509431e-01, -4.43065464e-02],
       [-1.86946362e-01, -1.83665425e-01,  7.66218603e-02,
        -8.24122280e-02, -1.21239843e-02,  1.03766255e-01,
        -3.84788334e-01,  2.31075704e-01],
       [ 2.76142687e-01, -2.61431724e-01,  3.18530023e-01,
         1.10493332e-01, -1.38000082e-02,  3.38757664e-01,
        -1.22694239e-01,  2.06822455e-01],
       [-1.03644453e-01, -1.17966406e-01, -1.04642816e-01,
        -5.25995754e-02,  2.55958110e-01, -3.36747877e-02,
        -1.63181603e-01, -2.56343484e-02],
       [-1.36756495e-01, -1.91023931e-01,  1.50909171e-01,
         8.57228115e-02,  2.04696029e-01,  2.13565394e-01,
        -2.13954672e-01,  1.21354759e-02],
       [-2.83880293e-01,  3.06126416e-01, -1.99844658e-01,
         2.63175964e-01, -7.88050219e-02, -1.38933346e-01,
         1.18481353e-01, -1.44407615e-01],
       [-2.21570194e-01,  5.06717386e-03, -2.37130508e-01,
         8.72697756e-02, -1.75710306e-01,  1.28382489e-01,
        -4.63428527e-01,  8.11913908e-02],
       [ 1.19339591e-02,  1.75407872e-01, -3.61423451e-03,
        -2.71256357e-01,  1.79175168e-01,  1.43697858e-01,
        -5.57083115e-02, -2.01839387e-01],
       [-5.93062900e-02,  2.55582899e-01, -1.47265285e-01,
        -3.11817884e-01, -1.09034657e-01,  8.31095725e-02,
        -4.63484347e-01,  8.57500434e-02],
       [ 2.24750862e-01, -1.55529752e-01, -3.00002605e-01,
        -4.19604592e-02,  2.26174012e-01, -1.47918046e-01,
         3.64960581e-02, -3.07592243e-01],
       [-2.63924599e-01,  1.11757725e-01,  3.19747359e-01,
         2.86925137e-01, -1.53173491e-01,  3.81179482e-01,
        -1.25077605e-01,  2.04074383e-01],
       [-6.76694363e-02, -7.26456642e-02, -8.00015554e-02,
        -4.12141271e-02,  6.77696988e-02,  2.56922245e-01,
        -3.12406331e-01,  1.92663193e-01],
       [ 9.46285129e-02,  1.66242704e-01,  2.82235503e-01,
         1.99012324e-01, -5.22027984e-02,  3.56081814e-01,
         1.64797410e-01, -3.09820145e-01],
       [ 3.30224037e-01,  1.30133301e-01,  4.50782329e-02,
         1.37489319e-01, -2.33547509e-01,  6.67512789e-02,
        -4.54990983e-01, -1.90049991e-01],
       [ 2.11279523e-02,  2.36521170e-01, -6.44095242e-02,
        -1.60841614e-01,  7.67084435e-02,  1.24870040e-01,
        -1.32331595e-01,  3.15247953e-01],
       [-1.94190163e-02,  3.04889858e-01, -1.34388790e-01,
        -2.73918092e-01,  1.05412051e-01,  5.47727607e-02,
         3.37781087e-02, -2.56518453e-01],
       [ 2.77093537e-02, -2.74172366e-01,  5.19775301e-02,
        -1.06464989e-01, -1.72100976e-01,  1.23386033e-01,
        -4.78100330e-02,  8.87097418e-02],
       [-2.85172462e-01,  1.73292488e-01,  2.60400653e-01,
         1.18293487e-01,  1.03394389e-01, -6.16086051e-02,
        -1.65887281e-01, -2.93209732e-01],
       [ 2.13089168e-01, -2.09142808e-02, -1.43032655e-01,
         1.94545791e-01,  1.87399670e-01,  1.06495552e-01,
        -2.97236770e-01, -2.51598358e-02],
       [-2.06964910e-01, -1.68367907e-01, -2.02715442e-01,
        -1.83262929e-01,  2.62278914e-01, -7.74289966e-02,
         5.23770824e-02, -1.31334692e-01]], dtype=float32), array([ 0.02913834,  0.02907596,  0.00515288, -0.0278311 ,  0.09582305,
        0.07048208, -0.18319112,  0.        ], dtype=float32)]