[array([[ 0.28098384, -0.01854634,  0.3205116 ,  0.49584836,  0.10254892,
        -0.04840458,  0.23849238,  0.26844373,  0.10333338,  0.40717813,
         0.25502786, -0.09251739,  0.25844914,  0.45984733, -0.0394353 ,
        -0.10089046,  0.21735   ,  0.5508768 ,  0.2961675 ,  0.16292365,
         0.04769897,  0.04424173,  0.4196938 ,  0.28046864,  0.5185925 ,
         0.43459383,  0.23490903,  0.38468322, -0.00881962,  0.46820027,
         0.5216608 ,  0.0755116 ,  0.41907868,  0.47099054,  0.54932106,
         0.57597244,  0.27127963,  0.27667442,  0.22399357,  0.31112278,
        -0.0791987 ,  0.20617324,  0.43908298,  0.19553378,  0.54105437,
        -0.14817834,  0.32736486,  0.48994732,  0.21401434,  0.11002354],
       [ 0.27860782, -0.00067703, -0.07135589,  0.02898362,  0.52546036,
        -0.04604194,  0.32155406,  0.00907152,  0.06821258, -0.00584558,
        -0.03511744, -0.04890835,  0.18633102,  0.46908638,  0.10056845,
        -0.03522404,  0.2922947 ,  0.01319556,  0.39573172, -0.06346302,
         0.31392327, -0.11289041,  0.5483753 ,  0.13490686,  0.24176428,
         0.13688315,  0.00583226,  0.0148128 ,  0.5178798 ,  0.2054484 ,
         0.30266654,  0.00747501,  0.09592052,  0.44853202,  0.24650294,
         0.36622024,  0.29689038,  0.39474103,  0.31001687,  0.44695178,
         0.16753593,  0.16120793,  0.47449785,  0.51877487,  0.3209724 ,
         0.26385266,  0.5541159 ,  0.09602743,  0.40334365, -0.12323561]],
      dtype=float32), array([0.28425625, 0.32763445, 0.23887272, 0.29432976, 0.34048864,
       0.29805323, 0.31841758, 0.2913117 , 0.35082945, 0.28428087,
       0.31857443, 0.30285275, 0.30668476, 0.29145172, 0.30257607,
       0.2995617 , 0.29200846, 0.33916134, 0.27197   , 0.34654847,
       0.30502704, 0.26698917, 0.2921837 , 0.34136066, 0.27676123,
       0.2580515 , 0.270125  , 0.27922538, 0.31878266, 0.31920257,
       0.2881594 , 0.2817507 , 0.1560511 , 0.30267805, 0.27502424,
       0.32222518, 0.27583393, 0.29259378, 0.20727052, 0.26738057,
       0.29331213, 0.2387705 , 0.30766264, 0.27089652, 0.3136971 ,
       0.21875338, 0.30630067, 0.30134976, 0.2178068 , 0.26734674],
      dtype=float32), array([[ 0.26966557,  0.01984947,  0.26317918, ...,  0.31755933,
         0.03839435, -0.05358563],
       [-0.00701085,  0.38073096, -0.16993451, ...,  0.3360809 ,
         0.39441136,  0.24508761],
       [ 0.09926143,  0.38020447,  0.20490381, ...,  0.07421537,
         0.07089264, -0.06329044],
       ...,
       [ 0.4378144 ,  0.34538648, -0.19049509, ...,  0.03510869,
         0.39055523,  0.134572  ],
       [ 0.13299769,  0.29957268,  0.05480191, ...,  0.3788877 ,
         0.02346503, -0.05963038],
       [ 0.45618874,  0.24933742, -0.18930021, ...,  0.21449655,
         0.32769492,  0.27927536]], dtype=float32), array([0.3131291 , 0.2627978 , 0.09993042, 0.31795087, 0.33541775,
       0.30989522, 0.32617694, 0.2529454 , 0.29983348, 0.14591384,
       0.29535452, 0.28748113, 0.20228572, 0.16749397, 0.19673778,
       0.29052866, 0.2886127 , 0.32041696, 0.26480114, 0.2903391 ,
       0.3451211 , 0.2880226 , 0.28514406, 0.31644082, 0.26364017,
       0.31871358, 0.3378539 , 0.345396  , 0.19167945, 0.30819756,
       0.28937072, 0.27985486, 0.23601204, 0.35345227, 0.19696908,
       0.23747699, 0.23059343, 0.28905872, 0.31497303, 0.29023167,
       0.2717346 , 0.31413382, 0.31017452, 0.29549682, 0.25081214,
       0.31979513, 0.22991878, 0.3032967 , 0.3012216 , 0.1501282 ],
      dtype=float32), array([[-0.02344507,  0.4241037 ,  0.06497443, ...,  0.06220472,
         0.12466918,  0.05316364],
       [ 0.24393517,  0.23564786,  0.38470995, ...,  0.2029545 ,
         0.2734103 , -0.03760886],
       [ 0.36474738, -0.01816169,  0.05111807, ...,  0.22868586,
         0.1818984 ,  0.06324419],
       ...,
       [ 0.20007943,  0.43104097, -0.09168496, ...,  0.02420877,
         0.07051125,  0.2016478 ],
       [-0.05182971,  0.21054506, -0.0153181 , ..., -0.05166226,
         0.01471626,  0.06065664],
       [-0.03863437,  0.01968881,  0.0662384 , ...,  0.20518261,
         0.11051478,  0.17040573]], dtype=float32), array([ 0.16093238,  0.29349214,  0.16348429,  0.13545376,  0.1478482 ,
        0.20818691,  0.21145368,  0.25003588,  0.2163534 ,  0.08642583,
        0.14641473,  0.2942059 ,  0.20268779,  0.2391662 ,  0.20705914,
        0.25510207, -0.01084234,  0.20097478,  0.13218097,  0.16907527,
        0.26692635,  0.20429409,  0.21536072,  0.0293302 ,  0.15481177,
        0.22750185,  0.23544885,  0.1636299 ,  0.20025098,  0.19204828,
        0.18980429,  0.12395323,  0.16190359,  0.17506878,  0.08319093,
        0.1468433 ,  0.10986277,  0.24408075,  0.00932836,  0.29101157,
        0.19949864,  0.23552819,  0.26833895,  0.16736123,  0.10529729,
        0.15324795,  0.24487327,  0.05791091,  0.22655435,  0.14535254],
      dtype=float32), array([[ 0.4486199 , -0.32571623, -0.0747766 , ..., -0.22027425,
        -0.10130393, -0.17584017],
       [ 0.08599165,  0.13293666,  0.36267507, ...,  0.2370087 ,
        -0.16478018, -0.07640322],
       [ 0.13959187,  0.0683495 , -0.05778843, ...,  0.09874421,
        -0.14955348,  0.09462021],
       ...,
       [ 0.09685704,  0.08900157,  0.11065027, ...,  0.14625727,
        -0.25558344, -0.2217439 ],
       [ 0.27069357, -0.20063825,  0.1449611 , ...,  0.18663046,
        -0.24629849, -0.10364579],
       [ 0.04578953, -0.1937572 ,  0.2351462 , ...,  0.22607854,
         0.02873435,  0.19013251]], dtype=float32), array([ 0.2267125 , -0.09102046,  0.15339243,  0.05613533,  0.18544608,
        0.05722537,  0.11802787,  0.14026365, -0.02940402,  0.1364755 ,
        0.1369522 ,  0.107352  ,  0.08146619,  0.02886561, -0.04476664,
        0.16742449,  0.03280051, -0.0730131 , -0.02181757,  0.03173595,
        0.1347204 ,  0.0255583 ,  0.03194333, -0.12268406,  0.16370386,
        0.00232487,  0.09763087,  0.00572427, -0.1035535 ,  0.06925528,
        0.12166765,  0.04045222,  0.08722794, -0.09491552,  0.06296919,
        0.19529153,  0.08844212,  0.07132672, -0.09403261,  0.04353886,
       -0.01857083,  0.1302021 , -0.11866266, -0.03682893,  0.15776803,
        0.05005354,  0.02672727,  0.01637406, -0.06973334,  0.01708468],
      dtype=float32), array([[-0.03596115, -0.15337695, -0.27015713,  0.24371299,  0.09341273,
         0.18268219,  0.35052496,  0.39511824],
       [-0.24278568,  0.22964948,  0.2960445 , -0.133631  , -0.14492586,
         0.09838524, -0.15551426,  0.08364438],
       [-0.28091946,  0.31657714,  0.23640391,  0.27214488, -0.01820104,
        -0.02698575,  0.21522743,  0.47272557],
       [ 0.02297483,  0.3574567 , -0.15276335, -0.16758052,  0.00052535,
        -0.11709107,  0.23712783,  0.01741755],
       [ 0.15108083,  0.07135001,  0.21590829,  0.17384706,  0.12525304,
         0.19255309,  0.22197786,  0.21577898],
       [ 0.00286701, -0.08753829, -0.01351515,  0.08606831,  0.17587025,
        -0.17672838,  0.35388726, -0.00689529],
       [-0.10694242,  0.12498051,  0.02890731, -0.26848185, -0.09688462,
        -0.02330945,  0.07948351,  0.25990173],
       [-0.0533614 , -0.24285644, -0.19013633, -0.16844344,  0.11844066,
        -0.04876308,  0.14618242,  0.18790069],
       [-0.39403665,  0.13437383,  0.3111626 ,  0.26264796,  0.18283573,
        -0.18591556, -0.04786789,  0.1729685 ],
       [-0.17948769,  0.3044424 ,  0.17031321,  0.29736066, -0.04537874,
         0.00732847,  0.4478682 ,  0.21106862],
       [-0.14602429, -0.22098632,  0.08783305,  0.12333169, -0.13255194,
         0.16376375,  0.44212264,  0.18435313],
       [-0.39802307,  0.11860918, -0.2247986 , -0.02730398,  0.36582148,
        -0.10891937,  0.16364469,  0.24168822],
       [-0.09928522,  0.13257274,  0.17893365,  0.325589  ,  0.30287546,
         0.10884293,  0.06486776,  0.30956092],
       [-0.20205665, -0.17070392,  0.250468  , -0.17682141,  0.22290057,
         0.24671797,  0.35597658, -0.1158982 ],
       [ 0.01710509, -0.14044859, -0.2172466 ,  0.01108081,  0.08306782,
        -0.09232021,  0.11083596, -0.01062358],
       [-0.36610642,  0.25157672, -0.00390502,  0.28573725, -0.19307236,
         0.19031817,  0.30133575,  0.4128886 ],
       [ 0.02120926,  0.05551871,  0.09050554, -0.24004537,  0.25192693,
        -0.15292826,  0.12382728,  0.11046295],
       [-0.06509536, -0.03283204,  0.00661677,  0.16384178, -0.21892427,
        -0.00480538,  0.12643321, -0.07424869],
       [ 0.24436465,  0.23412794, -0.05358033, -0.15847088,  0.15532494,
         0.25887218,  0.14601484, -0.0965919 ],
       [ 0.18606557,  0.11143346,  0.01900711,  0.18956003,  0.05817259,
         0.07937767,  0.11668804,  0.10647595],
       [ 0.03909989, -0.16814539,  0.10397954,  0.09232809,  0.06955818,
         0.2684687 ,  0.03262369,  0.3613361 ],
       [-0.12484865, -0.19734241,  0.28384906,  0.15819867,  0.30805138,
         0.16886812,  0.05400434,  0.17492479],
       [-0.04102214,  0.06730932, -0.1662461 ,  0.35033855,  0.17857452,
         0.32907394,  0.2303682 , -0.01550123],
       [ 0.1920291 ,  0.26584086,  0.21545957,  0.33324534, -0.03455219,
        -0.17192224, -0.01477188, -0.02018893],
       [-0.256473  ,  0.21879572,  0.21128176, -0.06165868, -0.20119908,
         0.04668054,  0.36475423,  0.37037057],
       [-0.33751166,  0.17063962,  0.18098733, -0.09812254,  0.1870123 ,
         0.08671701,  0.2248482 , -0.09103455],
       [-0.35245734, -0.10274595,  0.07641699, -0.1200865 ,  0.04371607,
         0.36173356, -0.12471561,  0.4791961 ],
       [-0.27298695, -0.21887366, -0.0855708 ,  0.0915859 ,  0.1722673 ,
         0.05683199, -0.01760603,  0.1466118 ],
       [-0.08176907, -0.23812027,  0.33171368,  0.21181399, -0.03499767,
        -0.11165738,  0.09635919, -0.13017797],
       [ 0.07793   ,  0.18657807, -0.25366354, -0.11092624,  0.34909898,
         0.3123666 ,  0.00951879,  0.25599748],
       [-0.08446573,  0.1583883 , -0.17064917,  0.29857075,  0.07292669,
        -0.06604321,  0.35526592,  0.14284255],
       [-0.29218352, -0.23205923,  0.15144649,  0.17468387, -0.20096928,
         0.29968774,  0.06842474,  0.2198497 ],
       [-0.00443149,  0.32563853, -0.07351506, -0.1511198 , -0.22683108,
         0.05455777, -0.00732476,  0.35601854],
       [-0.19764736, -0.1552474 , -0.20371945,  0.3387829 ,  0.18080463,
        -0.02526297,  0.0298669 , -0.12141576],
       [ 0.2085471 ,  0.23816888,  0.22116846,  0.13586606,  0.25022754,
        -0.02120072,  0.15499948,  0.14235985],
       [ 0.08917908, -0.05269633, -0.05991305, -0.2244447 ,  0.22367643,
         0.09520177,  0.19032745,  0.4875705 ],
       [-0.16051239,  0.21061678, -0.20915885, -0.2411233 ,  0.10487983,
         0.13408507, -0.01594506,  0.26225296],
       [ 0.03481951, -0.1506245 ,  0.20886528,  0.12192699, -0.12402395,
         0.35152194,  0.3833387 ,  0.09482789],
       [ 0.16498089,  0.04632781,  0.24745406,  0.14625731,  0.09188349,
         0.27764443,  0.00437658, -0.12747641],
       [-0.28910688,  0.09374492,  0.06151963,  0.0444795 ,  0.1072016 ,
        -0.05882838, -0.05185536,  0.26977527],
       [ 0.2145346 ,  0.32487828,  0.24330059, -0.00550094,  0.3618087 ,
        -0.02953273,  0.23408139, -0.10119264],
       [-0.11986407, -0.20106395,  0.00434004, -0.18637289, -0.1384298 ,
         0.37646088,  0.391822  ,  0.21218048],
       [ 0.19312897, -0.00371307,  0.14509384,  0.31559014, -0.19041   ,
         0.09483559, -0.10973441,  0.01643873],
       [-0.23347837,  0.21960016,  0.12666483, -0.11716074,  0.1921818 ,
        -0.03322675,  0.07682618,  0.00198272],
       [-0.2164792 , -0.22189458,  0.3295677 , -0.17226832,  0.1248266 ,
         0.2485118 ,  0.37928343,  0.22352754],
       [-0.3746112 , -0.26366055,  0.09193238, -0.03564174, -0.16608256,
         0.0674976 , -0.11955098,  0.37896505],
       [ 0.11193325, -0.21292114,  0.28624696, -0.1781661 , -0.24074765,
         0.3130483 , -0.05897944,  0.3193373 ],
       [-0.34852186,  0.20313919, -0.1549391 ,  0.2172534 ,  0.1645436 ,
        -0.20778279,  0.33318383, -0.1020412 ],
       [-0.0593382 ,  0.35414863,  0.26840943,  0.11453596, -0.15459833,
        -0.22768919,  0.13334726, -0.04328889],
       [-0.35540774,  0.06895956,  0.10237127,  0.03977505, -0.21006045,
         0.38633052,  0.26881465, -0.04557343]], dtype=float32), array([-0.06254396,  0.0420331 , -0.03257864, -0.02670739,  0.0408715 ,
        0.04004941,  0.15982807,  0.17521419], dtype=float32)]